#include "llie_weights.h"

const float llie_b1_dw_w[9] = {-0.116530985f, -0.0944383368f, -0.448984057f, -0.0645979345f, -0.443510115f, -0.303054392f, -0.533500731f, -0.175225377f, -0.0769777969f};

const float llie_b1_dw_b[1] = {-0.733807623f};

const float llie_b1_pw_w[8] = {0.865187705f, -0.0757762566f, 0.738754332f, 0.13541694f, 0.482133567f, -0.591658592f, 0.770776749f, 0.147795275f};

const float llie_b1_pw_b[8] = {-0.471165836f, 0.487522811f, -0.460682094f, -0.117259219f, -0.40610379f, 1.07774174f, -0.789261103f, -0.460955799f};

const float llie_b2_dw_w[72] = {-0.0928541943f, -0.199133098f, 0.0327214897f, -0.327935398f, 0.302272797f, -0.28186512f, 0.258578897f, 0.0567300916f, -0.106957354f, -0.218785062f, -0.372809291f, -0.155437946f, -0.388316303f, -0.529862285f, -0.335184574f, -0.515037f, -0.284383357f, -0.127059594f, 0.192659259f, -0.145710543f, 0.192394286f, 0.0596352592f, 0.169264719f, -0.203141093f, -0.329942226f, -0.128773212f, -0.255647033f, 0.27348569f, 0.095996812f, 0.138057545f, 0.105406761f, -0.00579823181f, 0.260842174f, -0.236810595f, 0.020986205f, -0.227486134f, 0.102770366f, -0.114780463f, 0.102125123f, -0.0694403425f, 0.276436687f, -0.197540045f, -0.198772073f, -0.198784068f, 0.299787015f, 0.492580205f, 0.702272236f, 0.106454417f, 0.0509539917f, 0.120813727f, 0.15734683f, 0.516538918f, 0.500915885f, 0.658505499f, -0.172128156f, -0.22721f, 0.176845744f, -0.134721205f, 0.20228067f, -0.0790933967f, 0.19065471f, -0.258962065f, -0.168202952f, 0.101611853f, 0.0704623684f, -0.0849794373f, 0.198662549f, 0.226575807f, -0.241697192f, -0.17794244f, 0.305193394f, -0.112463869f};

const float llie_b2_dw_b[8] = {-0.249229431f, -0.701300859f, -0.528352797f, 0.38557151f, -0.370961279f, 0.10905759f, -0.340216905f, -0.560476243f};

const float llie_b2_pw_w[64] = {-0.663889468f, -0.565191329f, -0.63312614f, 0.105096929f, 0.0157961734f, 0.478355289f, -0.242083445f, -0.650168717f, -0.212994039f, -0.0988272429f, 0.0743801072f, -0.330028057f, -0.133353636f, -0.192575887f, -0.0110563207f, -0.112414919f, 0.0488366522f, -0.135503352f, -0.145195588f, -0.309444368f, -0.0150588471f, -0.330329955f, 0.439169168f, 0.0274680723f, 0.101092823f, -0.207467273f, -0.55632174f, 0.525680304f, -0.400362939f, 0.0785599649f, -0.627152443f, -0.603680432f, 0.101141751f, -0.0772247538f, 0.137632877f, -0.290121078f, 0.262461066f, -0.259499907f, -0.061042428f, 0.0738397688f, 0.182508931f, 0.285400033f, 0.322045445f, -0.280313045f, 0.0889709964f, -0.152058855f, -0.0387406722f, -0.264603943f, 0.322009891f, -0.2594634f, 0.188929781f, 0.124239028f, 0.114875637f, -0.191120028f, 0.321335614f, 0.0776866823f, -0.278450161f, -0.725020349f, -0.195747897f, 0.311936229f, -0.545870066f, 0.587579072f, -0.322477967f, -0.535250068f};

const float llie_b2_pw_b[8] = {0.120222889f, -0.0360792428f, 0.105495654f, 0.119524784f, -0.201701418f, -0.121058203f, -0.264103562f, 0.423593551f};

const float llie_fc1_w[64] = {0.0495196059f, -0.37117511f, 0.0282739196f, 0.000459622301f, 0.0641027987f, -0.125895441f, 0.184520781f, -0.00900738314f, -0.0596628785f, -0.115159258f, -0.122537181f, -0.115060762f, -0.062449839f, -0.105345644f, 0.225966483f, 0.144222513f, -0.0349974409f, -0.0791526735f, 0.00515872752f, -0.0211083461f, 0.0849914029f, 0.0990639105f, -0.321089983f, -0.130460903f, 0.527234733f, 0.137714848f, -0.00162003504f, -0.00625628559f, -0.216278493f, -0.316674143f, -0.115231484f, 0.335709691f, 0.225406021f, 0.163221017f, -0.312494129f, -0.212586462f, -0.0557897948f, 0.341982424f, 0.0511373281f, -0.0915531665f, 0.550368607f, -0.0927501395f, -0.126079798f, 0.626711965f, -0.160747722f, -0.0708688796f, -0.35168916f, 0.625326633f, 0.614883125f, 0.152578071f, -0.225600868f, -0.0428211242f, -0.287121356f, 0.263617575f, 0.169729382f, 0.619784594f, 0.180687636f, 0.0436957777f, -0.0646559969f, -0.339728177f, -0.30288744f, -0.33066842f, 0.144717678f, -0.244335532f};

const float llie_fc1_b[8] = {-0.194017023f, -0.321262985f, -0.0644189417f, -0.0886594579f, -0.230990052f, 0.399045676f, 0.122788437f, 0.157979757f};

const float llie_fc2_w[24] = {-0.071317181f, -0.219554886f, -0.0623737611f, 0.155424848f, -0.108153045f, 0.110751703f, 0.595652521f, -0.202064484f, 0.115001708f, 0.0853294879f, 0.252562821f, -0.531511664f, 0.254247189f, -0.565875113f, -0.197303623f, 0.287385374f, -0.0454016514f, 0.303104311f, -0.0813919827f, -0.340812981f, 0.169657648f, -0.570262671f, 0.086654976f, 0.232538894f};

const float llie_fc2_b[3] = {0.552119493f, -0.297309786f, -0.428723156f};

